// *****************************************************************************
// 	THIS CODE WAS AUTOMATICALLY GENERATED ON 2024-04-29 16:34:41
// *****************************************************************************

#include "mlp.h"

static float32_t tensor_fc1weight[1312] = {0.12043638, -0.010599331, -0.112343706, 0.14472543, -0.12403796, -0.106818765, -0.032367088, -0.06716501, 0.15464738, -0.09435902, 0.09005785, -0.054463476, 0.06378765, 0.13656424, -0.113063395, 0.10938094, -0.02737069, -0.11035785, 0.14234051, -0.022883756, -0.1237157, 0.15188265, -0.073469445, 0.026258377, -0.14666186, 0.081598714, -0.041728698, 0.13621591, 0.023789844, 0.015077402, 0.05345784, 0.025997939, 0.058716726, -0.028632183, 0.11334283, -0.102713205, 0.030444881, -0.1538789, 0.13686141, -0.090450674, -0.08708348, -0.1531155, 0.08835756, -0.04449172, -0.08271629, -0.15236585, 0.01182102, 0.10028924, 0.131004, 0.13420871, 0.032969713, 0.0572556, -0.0939216, -0.025771849, -0.00679113, 0.0041973777, 0.14559115, -0.15087613, 0.08376799, 0.06294393, -0.13858844, 0.081584096, -0.037628576, -0.011958938, -0.03574733, -0.060263455, 0.011103079, -0.09328628, 0.099366605, -0.008856373, 0.092759505, -0.12370503, -0.14036427, -0.045083918, -0.07582698, -0.11968323, -0.09346373, 0.13824673, 0.13044189, -0.11545495, 0.12019219, -0.108050115, 0.023406662, -0.08919102, -0.103439525, 0.09989941, -0.00686236, 0.13887072, 0.028129049, -0.117694974, -0.015542836, -0.03793191, 0.0012471771, -0.10833016, 0.027551372, 0.01758935, -0.10449744, -0.083360605, 0.13624817, -0.03850043, 0.026874145, 0.03798022, 0.104034476, -0.13223422, 0.10106084, 0.12187369, -0.053935286, 0.0076916707, 0.10799646, -0.1070122, 0.0108687235, -0.13565749, -0.11682295, -0.14775786, -0.037601918, 0.093821965, -0.12791589, -0.0049484023, 0.054405708, 0.001967818, 0.13644858, 0.00085010607, 0.05619346, -0.05407205, -0.13531569, -0.096025996, -0.09313679, 0.0026497536, -0.0009548474, -0.008002766, 0.1176696, -0.021315224, 0.08124463, -0.10632045, 0.0716196, -0.07820205, 0.14425912, 0.03959794, 0.039091792, 0.0037455342, 0.082552314, -0.11509839, -0.1473605, 0.08446046, 0.041153572, 0.12616232, -0.11092704, -0.032497242, -0.14693989, -0.047239196, -0.098954976, 0.08313567, -0.13880166, 0.122837685, -0.055642795, -0.13795678, 0.11229273, 0.110130735, 0.12523495, -0.023011211, -0.106978744, -0.05134118, 0.0125800315, -0.034462508, 0.07099488, -0.15227006, -0.07747396, 0.06730253, -0.00807409, -0.06156872, 0.07980567, -0.15181768, -0.14232399, 0.11840665, 0.036778174, 0.07429497, 0.03957651, 0.121900484, 0.07260513, -0.007435812, -0.061703697, -0.07992563, 0.015557656, 0.045782536, -0.0011966683, 0.0612313, -0.030803582, -0.02870896, 0.08600466, -0.048136238, -0.06544575, -0.06896942, -0.11122633, 0.019734591, 0.09687673, -0.10247903, -0.06399069, 0.14797992, -0.07065184, -0.07489736, 0.058143422, 0.08545448, -0.058081947, -0.07261887, 0.13059953, -0.13732539, -0.13056475, 0.14536342, 0.04143339, 0.0956915, 0.04055837, -0.1275999, 0.105157085, -0.11567376, 0.10305437, 0.15353526, 0.09699497, 0.049384736, -0.002698922, 0.02780682, -0.11205233, -0.09049798, 0.0882232, 0.039259516, -0.11034582, -0.114036046, 0.12766047, 0.014993159, 0.12536146, 0.037956335, -0.13916993, 0.0040735723, -0.080557056, 0.021204581, 0.11458931, 0.13178855, -0.05204326, -0.06940782, 0.12962224, -0.0027798144, 0.033398267, 0.07109368, 0.075798005, 0.0025938828, -0.006508984, -0.08300103, 0.035210963, -0.11122095, 0.07452631, -0.06637645, 0.017401613, 0.024400363, -0.051331833, 0.08726992, -0.020094763, -0.12473265, -0.14460216, -0.08904555, 0.1327289, -0.0901072, -0.041224074, -0.09650428, 0.0404934, -0.12509768, -0.026169255, -0.051252466, 0.056077827, 0.028440928, -0.08934815, -0.08281482, -0.13126318, 0.09491849, -0.12289171, 0.14495559, -0.04336131, -0.09568219, -0.06380726, -0.017574772, -0.0744939, 0.08940806, -0.14319736, -0.07924996, 0.02870615, -0.14074233, 0.027970448, 0.028439643, -0.09728414, -0.14670788, -0.036436155, 0.08350755, -0.04132939, 0.11484629, -0.051803354, 0.14368136, -0.14874728, -0.05992976, -0.100862935, -0.14073749, -0.14239047, -0.07935607, 0.1076606, 0.13664903, 0.03687422, -0.11617892, -0.03362413, 0.15464659, 0.00950826, 0.1451211, -0.06965545, 0.017566487, -0.022196962, 0.004844592, 0.043782827, 0.08229424, -0.026267797, -0.107048295, 0.08893606, -0.06528387, 0.092405684, 0.004671618, -0.027362702, -0.15097524, 0.15444157, 0.073359095, 0.14803848, -0.07920819, 0.13899553, -0.13636063, -0.14192264, 0.030510377, -0.1492384, -0.122559704, -0.027157707, 0.14640942, 0.12525769, -0.08055988, 0.027069367, 0.08187512, 0.016376559, 0.021924365, -0.09884411, 0.08923712, -0.111849084, -0.041221153, -0.026982518, -0.08168834, 0.025428656, 0.1460163, -0.008703394, 0.06266033, 0.0733593, -0.102449544, -0.047618356, 0.14444797, -0.1307181, -0.005168981, 0.14236578, -0.06619936, 0.14624628, -0.054455213, 0.14197114, -0.14409536, 0.12569116, 0.009761009, 0.085070945, 0.01962946, -0.13186398, -0.060735017, 0.013990949, -0.016774263, -0.056405008, 0.12712073, 0.12256497, -0.02581249, -0.14291073, -0.15346521, -0.028247697, 0.0654442, -0.016543966, 0.023389515, -0.13467543, -0.09678922, -0.030417087, 0.15528099, 0.1420785, 0.11534379, 0.09440713, -0.03383499, 0.044950675, -0.09749128, -0.13739048, -0.13956825, -0.03638732, -0.14701292, 0.057573788, -0.033783253, 0.12744357, 0.14965521, -0.12667301, 0.06336451, -0.07465289, -0.13483016, -0.14578344, 0.08378776, -0.14766945, -0.06554753, 0.14524172, -0.05134721, 0.098692246, -0.024700122, 0.12231388, -0.03332136, 0.010510824, -0.120846726, 0.08873596, -0.107401595, -0.11922915, -0.037288234, 0.13239148, -0.10591649, -0.080082886, -0.0074039767, -0.14606121, -0.15292174, 0.12745978, 0.03466726, -0.03154487, 0.059277408, 0.044199444, -0.15208131, 0.077826, 0.08880866, -0.0893624, -0.09491871, -0.04055977, -0.13516697, 0.05014965, -0.02091335, 0.061265163, 0.026725598, -0.08655419, -0.112356886, 0.06394625, 0.07303608, 0.08343521, -0.059104152, 0.113270625, -0.08767501, 0.111021034, -0.106122434, -0.11556181, 0.032404657, -0.08333938, -0.11792305, 0.061788723, 0.06704805, 0.10340549, -0.004594486, -0.013748607, -0.08347423, 0.012375241, 0.0063503827, 0.08479275, -0.104682945, 0.09612041, 0.027496934, 0.08683932, 0.11801214, 0.03356748, 0.09460782, -0.080448516, 0.0708802, 0.0019578019, 0.02990278, 0.13449247, -0.037637327, -0.042320956, -0.060247876, 0.13138615, -0.08251748, -0.038869444, 0.043551095, -0.0004814264, -0.11363791, -0.02492878, -0.12505892, 0.00066598033, -0.09125657, 0.1468088, -0.13138238, -0.13230582, 0.11190158, -0.13084143, -0.11334333, 0.052535575, -0.062348302, 0.010183419, -0.10973646, 0.12567866, 0.046257187, -0.0018277597, -0.09416791, 0.02717126, -0.01188486, -0.076538645, 0.13766153, 0.08322252, -0.07813581, -0.03841049, 0.037614316, 0.13811101, 0.0644053, 0.082616806, 0.058099132, 0.091013126, 0.09414935, -0.08261792, -0.092644244, -0.012017154, -0.041271158, -0.039050143, -0.08109135, -0.0462581, -0.14572081, -0.02213182, -0.014776508, -0.0450726, -0.06063934, 0.10178252, -0.14143163, 0.01771256, 0.016057756, 0.042767882, 0.111557275, 0.101795405, 0.00037177015, 0.15616676, 0.100209005, -0.04038203, 0.049514405, -0.13648696, 0.07124504, -0.115793616, 0.0073996573, -0.018707825, -0.14242603, 0.15594018, -0.0021594095, 0.13538833, -0.11546413, -0.10197804, 0.066467024, -0.13735871, 0.032084476, -0.065082595, -0.06578665, 0.056953456, 0.10557404, -0.072965935, -0.06385244, -0.12329651, -0.08906966, 0.11289556, 0.04295964, 0.03534765, -0.0006173704, 0.113855496, 0.032168627, -0.012669972, 0.027213056, -0.079869084, -0.07951517, -0.0208195, -0.13338527, -0.05482944, -0.10888484, -0.048404418, -0.09347004, -0.0668715, -0.13083914, 0.059321903, -0.12542008, -0.11024393, 0.046069298, 0.10745508, -0.11202734, -0.10735413, 0.033723064, 0.121143, -0.0782027, 0.075730205, -0.023835141, -0.106749974, 0.0127281705, -0.037192654, -0.12953168, -0.06431908, 0.08019848, 0.15087497, 0.09857038, 0.075585544, 0.025423238, 0.010545098, -0.09728712, -0.063359745, 0.05160491, -0.09458056, -0.0995813, 0.11684064, 0.11339833, 0.13680726, 0.049475774, -0.0890114, -0.12990552, -0.07123117, -0.0599015, -0.0011703247, 0.09480494, 0.019042566, 0.08193658, 0.14543054, -0.14844377, 0.048996005, -0.06505328, -0.116682425, -0.0977205, 0.08271782, -0.10148848, -0.031501826, 0.049263015, 0.15264462, 0.033785246, -0.15087083, -0.004627048, 0.049555644, 0.07452114, 0.15285319, -0.06091622, -0.11651197, -0.1482124, 0.003790216, -0.0025031604, -0.119899936, 0.011128194, -0.14766887, 0.020186435, 0.15012355, -0.14268313, -0.13595363, 0.023401951, -0.034267157, 0.109664015, 0.05604022, 0.1553325, 0.061893705, -0.0049371016, -0.082934804, -0.07922193, 0.07856472, 0.14048855, 0.006415227, 0.11073282, 0.002704079, -0.14344655, 0.040503304, -0.09026819, -0.08382972, -0.15414053, 0.034603238, 0.15516707, -0.15098287, 0.08259631, 0.09343327, 0.11995433, 0.11842192, -0.015074349, 0.11061246, -0.106597014, -0.14929591, -0.05604748, -0.13569999, 0.011923249, -0.14260137, 0.15016411, -0.06551329, 0.14026245, -0.015732305, 0.0028640765, -0.08987279, -0.10186099, 0.095530815, 0.041085802, -0.12823649, -0.13491514, 0.14809309, -0.06726872, -0.06268338, 0.07917471, 0.056538012, -0.05430106, -0.05278974, 0.08127412, -0.09094932, -0.047431234, -0.044844743, 0.027601564, 0.04376417, 0.092582285, 0.02608004, -0.097981215, 0.1151704, 0.03048947, 0.0052025476, 0.13792646, -0.08871477, 0.082425624, 0.11305733, 0.014618633, 0.0123422695, -0.0982065, -0.13122989, -0.016351538, 0.060510285, -0.12714677, -0.03813056, 0.096603245, -0.13103561, 0.09767626, -0.11736666, -0.031449158, 0.03345224, -0.09618905, -0.07331017, -0.10941536, -0.094712004, -0.08742934, 0.098931625, -0.04764552, -0.07054793, -0.07007161, -0.07793284, -0.1559192, 0.090682216, -0.027505275, -0.08936316, 0.08910056, -0.05137618, 0.11633514, -0.07707449, 0.13147114, 0.045133088, -0.13300085, 0.029236969, 0.08600183, -0.105786525, 0.022850879, 0.004533905, 0.017213466, -0.13822128, -0.04500651, 0.05513495, 0.016474115, -0.060781468, 0.021299995, 0.07122973, -0.014694015, -0.15190041, 0.03895607, -0.131659, 0.13543577, 0.12328165, 0.05855645, 0.0062701046, 0.13783331, -0.073213674, 0.06888713, 0.10083254, -0.06845599, -0.11911644, 0.07661289, -0.1258659, 0.08882962, -0.12819247, 0.06447342, -0.052381888, 0.0037751172, -0.017485503, 0.016168157, -0.14782451, 0.0039749187, -0.050685365, 0.04243007, 0.06669741, -0.056660384, -0.103500925, 0.0017721496, -0.004566802, -0.12399177, 0.013170854, 0.0035273016, 0.116907604, 0.106633835, -0.11670419, 0.12280006, 0.037437357, -0.046742074, -0.11415866, -0.097637445, -0.1372537, -0.061346263, -0.1128479, -0.010398896, -0.053625397, -0.072985426, 0.024742216, 0.0013920389, 0.030980857, 0.05413235, -0.15072657, 0.08210749, 0.002113164, 0.099111564, 0.054728497, -0.09169005, 0.11400123, 0.044627234, 0.08203937, 0.09472358, -0.042361483, 0.07793733, 0.09785459, 0.007685657, 0.12535526, 0.10491713, 0.019404134, -0.045327995, -0.05978972, -0.028828578, -0.10732631, 0.0016819113, -0.10225498, 0.032105103, 0.07610756, -0.07798197, -0.13051172, 0.14046955, 0.08291448, -0.11732936, -0.098075785, -0.090738386, -0.064038575, -0.0692549, -0.09903172, -0.13945794, -0.036104765, -0.072167285, -0.03887734, -0.0944147, 0.106283344, -0.12873942, -0.035586737, 0.09669909, -0.08265214, -0.09292157, 0.08704992, -0.14049523, 0.0032933557, -0.06544446, 0.05570507, -0.13596806, -0.15363674, 0.0906015, 0.033514604, -0.08998904, 0.11279583, -0.03370886, -0.09607818, -0.082154274, 0.10635554, 0.12985148, -0.12539114, -0.025216326, -0.045593105, -0.089300625, 0.035270594, -0.02125656, 0.100089066, -0.097725, -0.02236249, -0.11474227, 0.123581484, -0.0983726, -0.08565201, -0.052504353, 0.026100203, 0.09642938, -0.001125308, 0.11066081, 0.0149612855, -0.075385354, -0.05173058, 0.033493847, 0.011568774, -0.0721031, 0.047104705, -0.14866999, 0.04141725, 0.14047131, -0.08223479, -0.13338326, -0.06542542, -0.12220022, -0.00083361106, 0.15404604, 0.06695373, 0.08397692, -0.07647978, -0.016975498, 0.0047538322, 0.066641375, 0.13137482, -0.03833535, -0.09562973, -0.12615289, 0.014119818, 0.02039897, -0.095376514, 0.12820265, -0.07949369, 0.13537046, 0.016488729, 0.15608576, 0.12924568, 0.10069518, 0.105388835, 0.14224301, 0.037589427, -0.060423177, 0.050518494, -0.14609537, -0.12813345, 0.1319788, 0.04372491, 0.10777485, -0.044861052, -0.030685399, -0.04107415, -0.027144358, 0.11734999, -0.015678892, -0.13917823, 0.1062743, -0.007070614, -0.034087274, 0.13736188, 0.061595306, 0.053659208, -0.12244368, -0.09242089, -0.15430757, 0.013726451, 0.15142027, 0.02089531, 0.020637684, -0.030957269, 0.12652135, 0.044339392, -0.11584524, 0.06341126, 0.04486712, -0.13414384, 0.1437172, -0.09608582, -0.08407758, -0.13079484, 0.030979088, -0.095474586, -0.1252203, 0.11798326, 0.08921623, 0.089746475, 0.016587382, 0.07953608, 0.03303225, 0.064931236, -0.080370635, -0.06509166, 0.101973094, 0.04015086, 0.0076837023, -0.099640615, 0.0353104, 0.037922658, -0.1282157, 0.13671075, 0.09047291, 0.111275926, -0.13902801, -0.12431249, -0.15501502, -0.1303598, -0.048746645, 0.081660576, -0.11089422, -0.03639391, -0.054722946, -0.07139154, 0.11508065, 0.07316326, -0.013097799, -0.0059052976, -0.109195955, -0.03968075, -0.12721458, 0.1216585, -0.13997422, 0.13282111, -0.14233842, 0.10491892, 0.11460071, -0.08987804, -0.1064283, -0.025020862, 0.004135587, 0.121997125, 0.06900038, -0.068356775, -0.11603251, 0.10981534, -0.039001513, 0.10259091, -0.1501294, -0.024907278, 0.0268279, 0.012776929, 0.1533267, -0.10030859, 0.015322742, -0.13838819, -0.08781626, 0.053581443, 0.09417627, -0.035580315, 0.14898749, -0.021055382, 0.045950297, -0.0033928843, -0.12772542, 0.11776557, 0.0015889547, -0.04443555, -0.062239077, 0.1137202, 0.028994495, -0.10651331, -0.0838492, 0.14348584, 0.05348897, 0.054170776, -0.10583552, 0.1035428, -0.11030459, 0.03528091, 0.072126925, -0.055025518, -0.019177224, 0.016733306, -0.06463571, 0.102089725, -0.042424317, -0.00038848852, -0.045621533, 0.10358589, -0.14731634, 0.04608542, -0.09786711, -0.019101825, 0.030924186, -0.10746147, 0.04091925, 0.037207827, -0.06294774, -0.15237081, 0.030460259, -0.025438411, -0.017350545, 0.0029633257, 0.14165732, 0.12720327, -0.1193451, -0.062467717, -0.035905484, -0.024274323, -0.06291474, 0.09985561, -0.00065281783, 0.009767693, -0.06982427, -0.094785, 0.03295361, 0.10185366, 0.05225795, 0.115796335, -0.03801792, -0.065259315, -0.1179946, -0.04869191, 0.14561048, 0.06740336, 0.019815745, -0.08553906, 0.033589635, 0.019021565, -0.08431136, 0.10817817, 0.027526218, -0.10615868, -0.1398839, -0.09933723, -0.1393783, -0.00909758, -0.11034133, 0.12466503, -0.13006029, 0.03264067, 0.014900276, -0.036070064, -0.013373969, -0.13349195, -0.046594236, -0.123484544, -0.017444413, -0.118584506, -0.08216338, -0.094320774, 0.13882436, -0.09372085, -0.13676742, 0.06950858, -0.008414583, 0.11416093, -0.012346906, 0.13441956, -0.14660583, -0.13731213, -0.047013573, -0.078092545, 0.13573752, 0.12880607, -0.09698643, 0.096691646, -0.1080509, -0.018008726, 0.015622482, -0.09026954, 0.15557627, -0.028338326, -0.1416467, 0.06541656, -0.015451648, 0.026985683, 0.057400033, -0.13621925, -0.07096565, -0.1470565, 0.08918769, -0.031521413, 0.065048605, -0.08683708, 0.05655633, 0.11759194, -0.102501094, 0.13694946, -0.07704379, -0.029523583, 0.10267757, 0.022655247, -0.09494092, -0.06943299, -0.13723536, -0.019640574, 0.05352308, 0.014987295, -0.10513368, 0.15233997, -0.12836868, -0.014756458, -0.003494628, 0.121952094, -0.030426841, -0.018275976, 0.044163626, 0.10141939, 0.08313934, 0.042903565, -0.031875644, 0.038751278, 0.14758232, 0.10743926, 0.015292377, -0.13607824, 0.013309218, 0.10557799, -0.11519442, -0.09943255, 0.03923086, -0.018817928, -0.13689716, 0.08976189, 0.015736029, -0.082474254, -0.12209552, 0.047150113, -0.1561431, 0.068757296, -0.1109426, -0.1178758, 0.031824745, 0.14764418, -0.1374632, 0.09192541, 0.14076327, 0.046949882, 0.12740713, 0.016862845, -0.10409407, 0.076712236, 0.022952547, 0.077658296, -0.116827995, -0.054252207, 0.13837558, 0.02622924, 0.06070361, -0.09700425, 0.0065638307, 0.015327657, -0.1441414, 0.13548602, 0.13860413, 0.078552574, 0.07198655, 0.11423139, -0.0394337, -0.00020488408, -0.065511934, -0.04924393, -0.051363483, -0.13159974, 0.114207715, -0.08542099, 0.14153385, -0.07282275, -0.09674766, -0.10601486, 0.07433993, -0.0743843, 0.13497558, -0.12582296, -0.022162873, -0.06386584, 0.08476819, 0.012246353, 0.1314134, -0.13976395, 0.05008162, -0.12438139, -0.02767553, -0.12401761, 0.05466598, -0.031384576, 0.02245297, 0.12207804, -0.13135785, 0.035393804, 0.13672242, 0.05453037, 0.13192783, -0.14250314, -0.0146486815, 0.120428145, -0.11888976, -0.106199585, 0.10265706, -0.10795902, 0.08814555, 0.12591104, 0.08444326, 0.13803479, -0.064431086, -0.15233311, 0.022841308, -0.08311733, -0.07962901, -0.12549306, 0.13697957, 0.11865222, -0.14494504, 0.014504546, -0.05547963, 0.045397583, 0.021316305, 0.050692998, 0.06235493, -0.09451691, 0.011950485, -0.06505144, -0.03569619, -0.0015445524, -0.049947184, 0.039747924, -0.03429497, };

static float32_t tensor_fc1bias[32] = {-0.031102354, 0.15013817, -0.0611976, 0.03700166, 0.13498102, -0.016344855, 0.11408264, 0.069385596, -0.00083806063, -0.1014308, -0.106291465, -0.13979407, 0.0039986, 0.035070386, 0.12814014, 0.03123035, -0.120544896, -0.05176411, 0.12664005, 0.05163889, -0.12509176, -0.15465051, -0.10524107, 0.000434883, 0.14260015, -0.102973275, 0.15580124, -0.030971047, 0.11991263, -0.041844424, -0.045939684, 0.09527406, };

static float32_t tensor_fc2weight[64] = {-0.14808069, -0.1763216, -0.16220658, 0.012655329, -0.08109953, -0.013133084, -0.101654954, -0.11638117, 0.1637562, 0.0827013, 0.15874195, 0.025132945, -0.00029795713, -0.014848103, 0.11484628, 0.10912799, 0.055050906, 0.09479892, -0.17190449, 0.09492644, -0.07738743, -0.14656346, -0.13747863, -0.17395039, 0.088418625, -0.04174934, 0.06709133, 0.16731896, 0.16521949, -0.1005161, 0.025108226, 0.11867954, -0.10461046, 0.07497808, 0.14636108, 0.13975653, -0.12161094, 0.06375514, -0.17012855, -0.019641085, 0.09334962, -0.1692794, -0.16596839, -0.121237054, 0.07781697, 0.061336666, 0.012608229, 0.049527016, -0.14112967, -0.111812845, -0.09453591, 0.13996805, 0.0037106506, 0.12854002, -0.08462059, 0.02989166, -0.17028235, 0.09189172, 0.0059123808, -0.162149, -0.09258122, -0.07101693, 0.112461954, -0.018608803, };

static float32_t tensor_fc2bias[2] = {0.00095919904, -0.11503592, };

void run_inference(float32_t* tensor_onnxGemm_0, float32_t* tensor_8) {
omp_set_num_threads(4);

#ifdef COMPILER_BENCHMARK
double neuralcasting_time_benchmark = 0.0f;
double neuralcasting_end_benchmark = 0.0f;
double neuralcasting_start_benchmark = 0.0f;
#endif




// GEMM OPERATOR fc1Gemm

#define CONNECTED_OUTPUT

#ifdef CONNECTED_OUTPUT
float32_t tensor_fc1Gemm_output_0[32];
#undef CONNECTED_OUTPUT
#endif

#ifdef COMPILER_BENCHMARK
neuralcasting_start_benchmark = omp_get_wtime();
#endif

#pragma omp parallel for shared(tensor_fc1weight, tensor_onnxGemm_0, tensor_fc1Gemm_output_0, tensor_fc1bias) collapse(1)
for(int32_t i=0; i<32; i++) {
    float32_t temp = 0.0f;
#pragma omp reduction(temp: +)
    for(int32_t j=0; j<41; j++) {
        temp += tensor_fc1weight[i * 41 + j] * tensor_onnxGemm_0[j];
    }
    tensor_fc1Gemm_output_0[i] = temp + tensor_fc1bias[i];
}

#ifdef COMPILER_BENCHMARK
BENCHMARK("tensor_fc1Gemm", 2656)
#endif

#ifdef COMPILER_DEBUG
printf("----------------- DEBUG OUTPUT fc1Gemm -----------------\n");
for(int i=0; i<32; i++) {
    printf("%f ", tensor_fc1Gemm_output_0[i]);
}
printf("\n");
printf("------------------------------------------------------\n\n");
#endif

// RELU OPERATOR Relu

#define CONNECTED_OUTPUT

#ifdef CONNECTED_OUTPUT
float32_t tensor_Relu_output_0[32];
#undef CONNECTED_OUTPUT
#endif

#ifdef COMPILER_BENCHMARK
neuralcasting_start_benchmark = omp_get_wtime();
#endif

for(int i0=0; i0<1; i0++) {
#pragma omp parallel for shared(tensor_fc1Gemm_output_0, tensor_Relu_output_0) private(i0)
for(int i1=0; i1<32; i1++) {

tensor_Relu_output_0[i1*1] = tensor_fc1Gemm_output_0[i1*1] > 0.0f ? tensor_fc1Gemm_output_0[i1*1] : 0.0f;
}
}


#ifdef COMPILER_BENCHMARK
BENCHMARK("tensor_Relu", 0)
#endif

#ifdef COMPILER_DEBUG
printf("----------------- DEBUG OUTPUT Relu -----------------\n");
for(int i=0; i<32; i++) {
    printf("%f ", tensor_Relu_output_0[i]);
}
printf("\n");
printf("------------------------------------------------------\n\n");
#endif


// GEMM OPERATOR fc2Gemm

#define CONNECTED_OUTPUT

#ifdef CONNECTED_OUTPUT
float32_t tensor_fc2Gemm_output_0[2];
#undef CONNECTED_OUTPUT
#endif

#ifdef COMPILER_BENCHMARK
neuralcasting_start_benchmark = omp_get_wtime();
#endif

#pragma omp parallel for shared(tensor_fc2weight, tensor_Relu_output_0, tensor_fc2Gemm_output_0, tensor_fc2bias) collapse(1)
for(int32_t i=0; i<2; i++) {
    float32_t temp = 0.0f;
#pragma omp reduction(temp: +)
    for(int32_t j=0; j<32; j++) {
        temp += tensor_fc2weight[i * 32 + j] * tensor_Relu_output_0[j];
    }
    tensor_fc2Gemm_output_0[i] = temp + tensor_fc2bias[i];
}

#ifdef COMPILER_BENCHMARK
BENCHMARK("tensor_fc2Gemm", 130)
#endif

#ifdef COMPILER_DEBUG
printf("----------------- DEBUG OUTPUT fc2Gemm -----------------\n");
for(int i=0; i<2; i++) {
    printf("%f ", tensor_fc2Gemm_output_0[i]);
}
printf("\n");
printf("------------------------------------------------------\n\n");
#endif

// SOFTMAX OPERATOR Softmax



#ifdef CONNECTED_OUTPUT
float32_t tensor_8[2];
#undef CONNECTED_OUTPUT
#endif

{
    float maximum = tensor_fc2Gemm_output_0[0];
    for(int i0=0; i0<1; i0++) {
#pragma omp parallel for shared(tensor_fc2Gemm_output_0, tensor_8) private(i0)
for(int i1=0; i1<2; i1++) {

        if(tensor_fc2Gemm_output_0[i1*1] > maximum)
            maximum = tensor_fc2Gemm_output_0[i1*1];
    }
}

    
    float sum = 0.0f;
    float exps[2];
    for(int i0=0; i0<1; i0++) {
#pragma omp parallel for shared(tensor_fc2Gemm_output_0, tensor_8) private(i0)
for(int i1=0; i1<2; i1++) {

        exps[i1*1] = exp(tensor_fc2Gemm_output_0[i1*1]-maximum);
        sum += exps[i1*1];
    }
}


    for(int i0=0; i0<1; i0++) {
#pragma omp parallel for shared(tensor_fc2Gemm_output_0, tensor_8) private(i0)
for(int i1=0; i1<2; i1++) {

        tensor_8[i1*1] = exps[i1*1] / sum;
    }
}

    
}

#ifdef COMPILER_DEBUG
printf("----------------- DEBUG OUTPUT Softmax -----------------\n");
for(int i=0; i<2; i++) {
    printf("%f ", tensor_8[i]);
}
printf("\n");
printf("------------------------------------------------------\n\n");
#endif
}